function [Y,Xf,Af] = myNeuralNetworkFunction(X,~,~)
%MYNEURALNETWORKFUNCTION neural network simulation function.
%
% Generated by Neural Network Toolbox function genFunction, 21-Jun-2014 08:00:34.
% 
% [Y] = myNeuralNetworkFunction(X,~,~) takes these arguments:
% 
%   X = 1xTS cell, 1 inputs over TS timsteps
%   Each X{1,ts} = 225xQ matrix, input #1 at timestep ts.
% 
% and returns:
%   Y = 1xTS cell of 1 outputs over TS timesteps.
%   Each Y{1,ts} = 2xQ matrix, output #1 at timestep ts.
% 
% where Q is number of samples (or series) and TS is the number of timesteps.

%#ok<*RPMT0>

  % ===== NEURAL NETWORK CONSTANTS =====
  
  % Input 1
  x1_step1_xoffset = [0;0;0;0;0;0;0;0;0;0;0;0;0;0;0;0;0;0;0;0;0;0;0;0;0;0;0;0;0;0;0;0;0;0;0;0;0;0;0;0;0;0;0;0;0;0;0;0;0;0;0;0;0;0;0;0;0;0;0;0;0;0;0;0;0;0;0;0;0;0;0;0;0;0;0;0;0;0;0;0;0;0;0;0;0;0;0;0;0;0;0;0;0;0;0;0;0;0;0;0;0;0;0;0;0;0;0;0;0;0;0;0;0;0;0;0;0;0;0;0;0;0;0;0;0;0;0;0;0;0;0;0;0;0;0;0;0;0;0;0;0;0;0;0;0;0;0;0;0;0;0;0;0;0;0;0;0;0;0;0;0;0;0;0;0;0;0;0;0;0;0;0;0;0;0;0;0;0;0;0;0;0;0;0;0;0;0;0;0;0;0;0;0;0;0;0;0;0;0;0;0;0;0;0;0;0;0;0;0;0;0;0;0;0;0;0;0;0;0;0;0;0;0;0;0];
  x1_step1_gain = [0.00784313725490196;0.00784313725490196;0.00784313725490196;0.00784313725490196;0.0078740157480315;0.00784313725490196;0.00784313725490196;0.00784313725490196;0.00784313725490196;0.00790513833992095;0.00784313725490196;0.00784313725490196;0.00784313725490196;0.00784313725490196;0.00784313725490196;0.00784313725490196;0.00784313725490196;0.00784313725490196;0.00784313725490196;0.00784313725490196;0.00784313725490196;0.00784313725490196;0.00784313725490196;0.00784313725490196;0.00784313725490196;0.00784313725490196;0.00784313725490196;0.00784313725490196;0.00784313725490196;0.00784313725490196;0.00784313725490196;0.00784313725490196;0.00784313725490196;0.00784313725490196;0.00784313725490196;0.00784313725490196;0.00784313725490196;0.00784313725490196;0.00784313725490196;0.00784313725490196;0.0078740157480315;0.00784313725490196;0.00784313725490196;0.00784313725490196;0.00784313725490196;0.00784313725490196;0.00784313725490196;0.00784313725490196;0.00784313725490196;0.00784313725490196;0.00784313725490196;0.00784313725490196;0.00784313725490196;0.00784313725490196;0.00784313725490196;0.00784313725490196;0.00784313725490196;0.00784313725490196;0.00784313725490196;0.00784313725490196;0.00784313725490196;0.00784313725490196;0.00784313725490196;0.00784313725490196;0.00784313725490196;0.00784313725490196;0.00784313725490196;0.00784313725490196;0.00784313725490196;0.00784313725490196;0.00790513833992095;0.00784313725490196;0.00784313725490196;0.00784313725490196;0.00784313725490196;0.00784313725490196;0.00784313725490196;0.00784313725490196;0.00784313725490196;0.00784313725490196;0.00784313725490196;0.00784313725490196;0.00784313725490196;0.00803212851405622;0.00784313725490196;0.00784313725490196;0.00784313725490196;0.00784313725490196;0.00784313725490196;0.00784313725490196;0.00784313725490196;0.00784313725490196;0.00784313725490196;0.00784313725490196;0.00784313725490196;0.00784313725490196;0.00784313725490196;0.00784313725490196;0.00784313725490196;0.00784313725490196;0.00784313725490196;0.00784313725490196;0.00784313725490196;0.00784313725490196;0.00784313725490196;0.00784313725490196;0.00784313725490196;0.00784313725490196;0.00784313725490196;0.00784313725490196;0.00784313725490196;0.00806451612903226;0.00784313725490196;0.00784313725490196;0.00784313725490196;0.0078740157480315;0.00784313725490196;0.00784313725490196;0.00784313725490196;0.00784313725490196;0.00784313725490196;0.00784313725490196;0.00784313725490196;0.00784313725490196;0.00784313725490196;0.00784313725490196;0.00793650793650794;0.00784313725490196;0.00784313725490196;0.00784313725490196;0.00784313725490196;0.00784313725490196;0.00784313725490196;0.00784313725490196;0.00784313725490196;0.00784313725490196;0.00784313725490196;0.00784313725490196;0.00784313725490196;0.00784313725490196;0.00784313725490196;0.00784313725490196;0.00784313725490196;0.00784313725490196;0.00790513833992095;0.00784313725490196;0.00784313725490196;0.00784313725490196;0.00784313725490196;0.00784313725490196;0.00784313725490196;0.0078740157480315;0.00784313725490196;0.00784313725490196;0.00784313725490196;0.00784313725490196;0.00784313725490196;0.00784313725490196;0.00784313725490196;0.00784313725490196;0.00784313725490196;0.00784313725490196;0.00784313725490196;0.00784313725490196;0.00784313725490196;0.00784313725490196;0.00784313725490196;0.00784313725490196;0.0078740157480315;0.00784313725490196;0.00784313725490196;0.00784313725490196;0.00784313725490196;0.00784313725490196;0.00784313725490196;0.00784313725490196;0.00784313725490196;0.00784313725490196;0.00784313725490196;0.00784313725490196;0.00784313725490196;0.00790513833992095;0.00784313725490196;0.00784313725490196;0.00784313725490196;0.00784313725490196;0.00784313725490196;0.00784313725490196;0.00784313725490196;0.00784313725490196;0.00784313725490196;0.00784313725490196;0.00784313725490196;0.00784313725490196;0.00784313725490196;0.00784313725490196;0.00784313725490196;0.00784313725490196;0.00784313725490196;0.00784313725490196;0.00784313725490196;0.00784313725490196;0.00784313725490196;0.00784313725490196;0.00784313725490196;0.00784313725490196;0.00784313725490196;0.00784313725490196;0.00784313725490196;0.00784313725490196;0.00784313725490196;0.00790513833992095;0.00784313725490196;0.00784313725490196;0.00784313725490196;0.00784313725490196;0.00784313725490196;0.00803212851405622;0.00784313725490196;0.00784313725490196;0.00784313725490196;0.0078740157480315;0.00784313725490196;0.00784313725490196;0.00784313725490196];
  x1_step1_ymin = -1;
  
  % Layer 1
  b1 = [-0.71673973833279758239;-1.4112204598482340767;-1.7499039852394020489;0.18704971866317615659;0.39784807248633780041;-0.26423764304832042527;-0.68795991897495378797;1.0428787345646224338;-2.1076920476705613972;-1.305030602112289273];
  IW1_1 = [0.76530304468905918647 0.30411508435016393337 0.55611104852071846505 -0.90670038486507786857 1.5990736121175275208 0.73013987583964223838 -0.80553299515104703765 -0.59692707215744245097 0.10269266121199460695 0.25595369729123085278 -0.24060349466474720281 0.33478925799023484533 0.082859489715789741426 -0.92873061303965831481 1.6016925494824130194 -0.78240792690519422869 -0.35320533707896539788 0.46061164279902361285 -0.27802037960546160944 -0.65485247230516552275 0.32524238816005268671 1.4585706466514072321 -0.26784579978764627706 -0.018065079388203536537 0.86951653378297499852 -0.47818801468427873935 0.3918989462241184718 -0.78880106972303831725 2.5385554675170407535 -2.7536052948468192625 -0.39102736862535703022 -0.32582165812058627719 -0.8494038279147120285 0.48735318301432428711 0.22418445891062804831 -1.1216046215246073814 -0.045902229280737477657 -0.061866076791703972226 -0.38242751351981435493 -1.6135932794620553299 1.289397130519480239 1.1391435294859320049 -1.0411003326211090148 0.15219732770415600465 0.88570337391301157126 1.2424649876607225529 -1.2391375394376016317 1.6003731070122197977 -0.58237906095988301036 1.1070415086303166952 0.21046515763867185145 -0.046926020924383068933 0.16369537309277581993 -0.17577344729441252147 1.149707360869233197 -1.327301117415099263 -0.76699690038657120095 -0.49926148883439624981 1.06068544786573149 -1.1452246312737153211 -1.2708578543296393804 1.5113838609037855143 -2.1491581559896060227 0.34156568350152655134 0.16330331857370961046 0.065699251873943209645 -0.10276839759455880241 0.56809092293561258558 -0.23242262630027032966 -0.44729923085043554742 0.71904541903119789659 -0.63949911777585488615 0.2530867753105137119 0.51928080657107678064 -0.49858128282732372405 1.356203772508440597 -0.5492818148414781998 0.47129669439041821377 -1.0554330625132697374 -0.37363002656066901519 -0.38136678149032143814 0.42157680322460605593 0.11405603188734196596 -0.94919260451450093719 -0.8422186323448923595 0.90550819683441807761 -1.1356073293064783414 2.8512649810827208618 -0.19365689530525792561 -0.77601778760466633145 -0.23654047278630882523 1.4207338855491080665 0.11405058677692142544 0.14788366587766765825 -0.5215544506841192085 -0.61582872976630442796 0.51396657471217399582 0.20738506322603017518 0.35477890505632792006 1.7036382464954988869 -1.5691214553839343271 0.73941705623587794527 0.62464446918122829011 -1.8533367007599497178 -0.28012938773102386003 0.45629581179507305855 -0.56100143138879943194 -0.37549519257693397822 1.1607578073202220459 0.041716382050169698026 1.3381086830796831144 -0.48937490708129038897 0.51412009580041917456 -0.48186939491320501805 -1.1631092805470435447 -0.43239810909241921388 0.54719616319825248318 -0.44725804043498573748 2.9130186275822058661 1.3421101040521024039 -0.82116419861082057263 -0.48371524251129199845 -0.19428272866199494673 -1.6913014983172600658 -0.36104428965178786415 -1.1730201106423898683 0.50954584973446626073 -0.91486738209066564842 0.78907145183645566178 0.63321532729138518825 1.3120215857133779025 -0.89809739675284583349 -0.50741898351514391763 -1.8387500313663089901 0.810538788121827114 0.16697627876401099911 -0.074630718689035063784 2.1673327139352034365 0.99832216628628800414 -0.20323299701807601148 1.378156209437175761 -0.71462639947176143096 -0.16062949089587652551 -0.041998813174695184824 -0.72805550539287322565 -0.66448329162524688574 0.49037485017606063931 -0.26275488142598152352 -1.5143658714679339994 -1.112222915672366419 -0.86949204165882432171 -1.0600825756675353873 -0.36044112157693275478 -0.42493713264985777389 1.5081466639907805671 -0.80473371240029933915 0.61757822389430361287 0.015740122022834188154 0.62097383945621142942 -0.87488896016824724278 1.4543336741906607301 0.084913701643847622202 -0.10788379005419876377 -1.8394938766159709687 -0.2016361443556342059 1.5577911553875094519 1.943051920805840993 -1.5794557402988789185 1.3913655769745665314 -0.45588702905066513793 -0.42489908260053715905 0.12698508232164082421 -0.35954943520080351327 0.85543877107385390968 -0.75336290120513726976 -0.64197982634981509698 -0.16035686787989661406 1.8590579853463677917 2.2446630377073413243 2.8502548782686227824 -2.6164876296876582451 -0.23324229711184521485 0.9777380992945049476 0.97020436229834072783 -0.35168752406735737104 -1.2861066364488289437 0.37817194539602072556 -0.71749936561153970782 -0.22177058361748727688 0.25221821607442762581 -0.40556238924716025984 0.83624915465942373238 -1.5633922235515156363 3.3835503069404513354 -3.3287173846385407217 1.4377460119197018606 0.98459548617397318893 1.5768386159697811433 -4.0481291560215080239 -0.95577363937402037841 1.2064416351592437415 1.0218954544255245409 0.39367886086745240704 0.70997098192170049469 0.27083925187492768893 -1.3101452037581822196 -0.040029435621760700581 -0.16626939897754783315 -3.8220492894418360841 3.8658297396997509665 -0.30704242148272598012 0.068203266196815465205 -2.1728452259158728133 2.0442710104841252949 0.46695271244615055295 0.088221390843539693183 -0.90596194116186778977 -0.14409578093753833139 -0.10146562042993081953 -0.52204968192263845328 0.31410054000730808221 0.13502179790747939614 0.70168363800182120826 -0.65703275060864518853 -1.5051045362115655912;0.57165275435414442118 -2.0676776554225844151 0.9623098686053134232 1.3203830772738971433 -0.26539395479010940981 0.26944770061090306257 -0.19915293571774805859 0.15188584996678117234 -1.9162189653059564787 -0.57722593490132756422 -0.2787516916790765964 0.66831092763533639367 0.94427098347083004981 0.42641743756488686978 0.53888957074476540043 -0.14499463371803530953 0.97917249231942826704 1.8343213917975871308 -0.34458402707615171101 -0.053989179086655181283 -0.53852996199978275804 -0.0040740493240629116478 0.66511614987814637878 1.7232530354781667725 0.73662128705828922026 0.011487909268643958782 2.717090225111030044 -0.4935501813251274017 1.4910759570782197159 -0.43303419438405771347 0.38580711540495293832 0.28183665894182569067 -0.72438493576730000889 -0.22057635228424818385 -1.2251854615845478857 -1.2758614611606267086 0.83612757094662470969 0.25506333438727624152 -2.3343450818967896865 -1.5572117497474300407 -1.787843318994211117 -2.9363787596394121948 -0.82397766882332823535 -0.84173983014277153902 -0.55856822439176156969 -1.6024250224845122403 -1.5630838934238009408 -0.6057167072281094411 0.5944746761156571857 -0.024593005432506614971 -0.30265598363167678375 0.99116666039312184555 -0.12615071246613696054 1.7391947358347408237 2.6496542690561062372 -0.96301339671926622366 -0.64584079917520220704 1.4280991975434791375 -0.96184225943728418606 0.1300073184889054545 0.45493191666656174199 0.9800782450444222027 0.7079890154830887905 1.2990987849308768265 1.6443218686097194059 -0.15089222686929676387 -0.55220934211214633969 0.91744839011652667971 1.1404861944122117734 -2.1356022573923016949 2.0184569951257302911 -0.2303983805428663767 -0.29901006091760629069 0.37472605735036279562 0.95188683144367525202 -0.14453847643963102509 -0.99854499359818826854 -0.80092282971267181324 -0.45158711568356385557 1.2368425000364162702 -0.14634039959702704881 -1.137389738966566588 1.1537671588507101283 -1.1708775933062633978 0.96773758231695850007 0.21039001538265977853 -0.22603240069578744986 -0.1760333950817426496 -2.564209252852955423 0.35662558841597347126 -0.14368336122011793332 -0.64225432689943273701 -0.74917813288324230925 -0.1182425541358886889 1.6560314332360084322 -1.4696566066880296653 1.4349693911338068375 -0.44122512253033796537 -0.60530097134687232963 0.76572676130356098767 -1.1752648164206789261 2.488856324803330633 0.62312093592452511004 -1.4812947526188264824 1.1759720748050463968 -0.54039717280712740166 0.39768474508116091748 1.8014897115009644857 -1.1008269110666224488 -0.37924664405534846967 1.6859100462522351727 -1.0219396984591500033 0.26895395296954138775 0.27768419952547679364 0.22912641238169817459 -0.31353729001558672262 0.71224600309096230966 0.88983495236738696654 2.1480462134098745608 -0.060823596459069539932 1.0684770177371269995 -1.3325060747854131638 -0.057730595628388226004 0.97179529135012343577 -1.9506880662349097566 -0.31998721782547012715 0.83335855698950056514 -0.0023180121249708474096 0.95260481383873552019 -0.21403126252975501753 2.8961569405517764153 -2.928154297204758727 -0.90937219431046012463 2.8289237176876920188 0.94093250372435510709 1.0244058884089453088 -1.7302817601554532079 0.24935091572317086284 -0.29519488208741101465 0.6775598721240192468 -0.64379175482933104213 -0.79731490146615691117 2.3779179867641384583 -0.2795858360109552132 0.55625488976500514493 -0.79756786530783285727 -0.52320393965610922926 0.063960967954253877821 -1.5305603653171380163 0.53423768330625764911 -0.062158040374353240587 0.45476079589862550279 0.26707786389377924374 0.51978624737502510111 -0.31351288062308257931 -0.4886274942362435203 1.0734427987331756071 -0.33060681527185081796 -2.0117181583141641177 -2.5802431153063767333 2.5824969777218491629 -0.16530414423389666601 -0.056790102602664677134 -2.0479629302766211296 -0.16171106594883766228 1.2352700111467083133 0.64368246216516666891 -1.4716567380453624558 1.1790342139526255316 0.066595992723991748186 1.1690838920941808432 0.50804746664414102142 -1.2094952323760423951 3.1767080727769987369 -0.98765661279142802353 0.45047570143152804167 -1.0344680819819267459 -1.1381323455971648073 -0.8195703849051180212 0.074036150847467729896 -1.1426048543551499126 0.35156421743567412008 1.8309257536677976397 -0.41609985411360783658 -1.6596228490697182423 0.017518499851873814421 -0.76661600524334860829 0.11025233173731829872 -0.72968834550067829259 -1.201913184216931052 -1.6996062386620487406 1.9250466937627177533 -1.2601397533548950314 -0.11541728951675023218 1.533566907061786333 -0.99557053664413552863 1.6120537297658270592 -1.1652856447906363435 0.18726203872731084221 1.5182871404793907288 0.040538883633451150423 1.5803596123857936995 -0.44140132867866527233 -0.4309197249846318245 1.9247224814759178457 -1.3572599733397172628 2.2462224585444330316 -1.318771417308929772 -1.4710881195172271774 0.45263330673938012572 -0.047560478791499716245 0.66710742344167694995 -1.1608111779789744844 -0.86789689260565194839 -0.59291366078778040549 2.2139350237295207791 0.35007560988053976203 -0.049032145601233867449 -0.77346660949103340776 0.45002799755762606937 0.69143420310597691891 -0.18216188440688135808 0.89714626262191621286 1.5609629126073141236 -1.4513065507020939116;-0.17472371717921375556 0.3387536702978711789 -0.81358178612409459696 0.28791005632247435031 -0.082995946907136630699 -0.41841966791020773764 0.50774866730511925006 0.10685646590070363438 0.2864283763900352664 -0.34250579161907018788 0.10942854432058102265 -0.15388529866363676035 0.037303486080823511362 -0.25315538535715487178 0.44704801004915339924 -0.45077441654105876445 -0.0897601040597927613 0.83063002684034836776 0.0084388530017241725201 0.23699139788518208682 0.47751321336305624365 -0.11553073682707074021 0.36248742980032422345 -0.22838724321458683808 -0.39206057438476094035 0.093544737174090120124 -0.25876563966515525594 0.60631676956569702241 -0.29074264953308048831 0.40738180012287378284 0.25704692258442818353 0.62167457265647119158 -0.15747828873322217147 -0.58021001558277440768 -0.43076389838777762176 -0.66739388750611605694 0.10803200785636440928 -0.22893646873757017568 -0.048665918385642520372 0.70756826591620680666 -0.66114629904997557208 -0.585750060299048525 -0.29204360337051271657 0.1646276499487086542 -1.0053718326871388111 0.10964841002973774176 -0.21978479472436054931 -0.022612004452013667599 -0.24489504221264929429 0.35759449417209621114 0.01249953163878558815 0.62299605757958265162 -0.088960439530233470506 0.021517809746667004855 -0.76452919724519774469 0.99012003773872736545 0.58152542112776894889 0.10054519987280757798 -0.40106549671692975911 0.94037800881158573052 -0.87383745312131377858 -0.11795656076765637099 0.06001109199393783733 0.84863081865235456824 -0.14472574116636638397 0.0029474944192234842077 -0.68126457198019962913 0.22525394356732353351 -0.32705995801952525426 0.71457214378711197966 -0.40915243093746900271 0.4189593411414246904 -1.18279834974912057 0.29364048396590225476 -0.54606596388797423725 0.69121470264985984677 -0.55139817191150808373 0.046673342942733730965 -0.51946747896677547551 0.20609405441246012036 -0.22966712227562932624 0.15562481531851568572 -0.41780543362909505767 0.61406505553294654653 -0.41673903946529611275 -0.58192480221325404433 -0.64058887288921628755 0.20707973450883848665 0.92292444722762279063 -0.19228396406334191671 0.23587007416859345765 -0.19679901461347870661 0.16418094747813793965 0.42291089605846182709 -0.09896554560692949476 -0.077959434561964441324 -0.0029899617802062322669 0.32911638670745557711 -0.18648791885930438017 0.4425387693443531556 0.72494242234198380537 1.2108024788220270729 0.077619592389931990617 -0.81846440813045628904 -0.30724006114288193725 0.55203322298839174742 -0.074603843555458571046 -0.38530182721292799419 -0.19036765345309197839 -0.27765323849396655875 0.29153478956522105303 0.031600006089717178059 -0.35830516009505780639 0.37738202943658316624 -0.44345300372760015906 -0.049755353505610583342 -1.091447858692399242 0.84105077160648900048 0.27765892348763626662 0.44667466275245854002 -0.42601288002512305297 0.55706900447326523906 -0.22138964304061037325 0.42442009641332240077 -0.14005612652591459266 -0.06599184652048706301 0.0082133166747988817225 0.35772070870618916105 -0.22413090870150234601 0.41844315997249315053 -0.35336558140041840481 0.47436848149218396875 0.080841048621239086636 -0.2007567048878855509 -0.53882175665037690404 -0.20021750160306486799 0.35885496855362325475 -0.038339397603413677418 0.02469074730170067733 -0.10295553736389162491 0.11102595919675914415 0.29328731212723957444 -0.54292954852031649615 0.71574980843556845755 -0.29938746096669849317 1.0113722515221381659 0.09453304965983799768 -0.18996933073247113111 1.1301058317317065338 0.58163048195817945718 -0.76987190585017917233 0.84045819498971718886 -0.058868030483880784409 -0.030205791845463569878 -0.25593815966945832052 0.098132193931377537099 -0.8155683627458483187 0.53869055809187349482 -0.66750672449266801323 0.45797645198355263485 -0.48281200468973611839 -0.3737472929837076796 -0.85102844034223190661 0.014144109116136283077 -0.1880903956123492482 1.2781503588205418431 -1.4399639184884083232 -0.32124261915979646087 -1.4340085325692248919 0.85639304595507559359 -0.17635687117700726834 0.40652076362044475832 -0.40146532047546445998 0.51712406619278683539 -0.7584735140865713765 0.17771394813336222063 0.11304626020408065079 0.6266391324520981243 -0.15391391818890037824 -1.8972791277135916399 -0.14944041268645644194 0.23081709267607872227 0.79479502347827291064 1.3593293673421871226 -1.4063723231492413213 0.77560045918935016651 -0.15586964336373848594 0.3838720855793866793 -0.41226879997492826835 0.37219064639819399165 0.36733037803463586268 -0.59599270610962162831 0.15935811188058499055 -0.33777624564942887453 2.1761899341408570407 -0.071365542438227125288 0.54750924173724291322 -1.3903660210593611346 0.19986538622854918557 1.1573765739402319674 -0.15478565699968388492 -0.27636388677281431558 0.046419641906831343725 -0.09899590283182760353 0.018366310443171496303 -0.0080969962829170738505 -0.037659995192214412718 -0.2431984977697438377 0.88531746613855988315 -0.22796423059330217509 -0.096138709862157334385 -0.62990816464861043578 1.2124148119697946147 -0.6350957949837596761 -0.15169760353302907951 0.13484127253198233132 0.037746587259379488222 -0.10615054576592040936 -0.11962955642858424943 -0.25685813650607680625 0.5571869429317343192 -0.59886206805155195454 0.027391832923680969891 -0.74239433299860957405 -0.085427333421809414915;0.42454498557980535622 -0.10118525373138159695 0.27435863232511942256 0.66790623749754185479 0.46249298541008676544 -0.096024718016838844781 -0.14170218016763810875 -1.1146720999091852544 0.26572660778554052508 0.51046504331849773539 -0.68393523217482476984 1.6114618396670197242 0.53084711840593779009 -0.83178041744602526641 0.95928928604838437089 -0.80947765921266556788 0.42521868465002210513 -0.26559713012400415488 -1.2077044883076548665 -2.075694090806877945 -0.69511437448598800692 1.663711124435096167 -0.77519187889355534171 1.4390819512717607509 -0.22993593928146160987 0.97346608872758955133 0.68487101261337346436 0.45847515944152328338 0.14186217831769853959 -0.36143147912931511412 0.44361668732685266558 -1.2134019545146241814 -0.38619365025644725176 0.67826771120677387117 1.1906134809869655111 0.46786934430173676702 -1.1379143661249275787 -0.007070362824989129269 -0.88113227560391638171 -1.2728138813341223212 0.87414081493927320299 -0.19683736849961797066 -0.77642929084243339499 0.56850038664189872506 0.65784988999968074808 -0.08372475800519091349 -0.77978018429585616023 0.30906153935330243909 -0.2242453045731707395 -1.4928330928148820789 0.73562559624076595544 0.19045791208771095659 1.1186121643782276358 -0.42248928704467642037 0.75616582758747497017 -2.0624105621352626372 0.25025708275980901307 -0.98090796870128271756 -0.41335221807587219089 -0.81508967265813181413 0.11206821257982743645 2.054867943403824615 0.43235210710962712621 -0.11137167266214534345 2.1865430497921698461 -0.35437441204259756411 0.24689184860396251597 -0.63170990954984118648 -0.25208152220696816714 -0.48147031459576961065 0.49685658061836018851 0.12254542214981881121 0.9489357024415340236 0.41396937272804101848 0.59359197380874539896 1.5406100064420658047 0.066266126768427191518 -1.1233273219719519531 -0.51476355145166241556 -1.1669617728830850023 -0.51865351706571716228 -0.38918079599497679144 0.4473460292097204416 0.13025984525480555076 0.077053075998534295565 -0.25185332602043919437 -0.11849304306346775117 -0.37405417598089552023 0.039677919736775812964 -1.7371093404936506222 0.23967878230707967413 -0.93806063695799180024 -0.077000425183985921063 1.5845200303508217843 -0.80761520587754476175 0.18901941391107013324 1.0065805213580520938 0.65968769030392360175 -0.45845192038633769682 0.32870905160984476012 -0.47083021442230471587 -0.81505081808023505108 -0.44344042593891019877 1.6300676017295190334 1.6061115552959548403 -0.52467045954985591649 0.15968723012597799138 -0.48943112073655947736 -1.1212452564441415248 1.2398333633778431118 -1.157683580790907607 -0.20421283572766363301 -0.65268121325257877352 -0.52895675746279036122 -0.23496905613108803879 1.7394670041113906578 1.1696281236920218483 1.6227622227069482541 -0.91191143336674496123 -1.1889833999770398343 -2.2109600515301526258 1.0586913920610603324 2.4795940730419321341 -0.4157347502918342097 1.3914161347186611017 0.24716055803255315704 0.76058828456177118849 0.0097929459860759404677 -0.096943865899012854337 -0.17822268639832672399 -0.98889197642109560871 -0.93003474740125668951 -0.59996496113902442193 0.90226613379915565627 -1.8937251086937412214 0.83781339712914837392 0.045649098558557921201 -0.8677844655247790584 0.099205592230568656609 0.14729361240187066606 1.2003586787232927158 -1.086011868357482868 0.9768692967114291914 -0.76853323298614906189 0.12166656132085706954 -1.3969615613971260171 0.28021778302030464491 0.52630826803434516137 -1.0805983487994206271 0.72643379984536426974 0.83113994080579400858 0.15860070331370035301 -1.8323851883154369524 1.0477012992333105679 -0.92574348831303066021 -1.1619213730356827696 1.0922192097075207329 -0.87982945093113917867 0.32476984742833964193 0.38243467708655948245 0.95946627826354324853 -0.13198284296367315815 -0.2685050093284981898 -2.0919448634832895628 0.47129375223089353675 -0.64014594389202850166 0.4495965035389757336 0.89485127463786040547 0.98241238860625790252 0.33077898109368730761 -0.47540594240915379221 0.88719933368711600963 -0.21921666002200601575 0.66050657610679286424 -0.83536138245455204832 1.0524731177103263668 0.42026497961533937353 -0.28060453043643168725 1.9792051940767843021 0.39786955118766614836 0.23629907641481395775 -0.60647853960811948237 -0.90137312608222497357 -0.4286678319258348524 -1.6853576452476464187 -0.36924774459427706086 -0.13930301755594842739 -0.53714312088629223574 0.060904501247343062476 -0.32046526329085062157 -0.93629257920359054701 0.82624507191786655813 0.039367070211739130237 1.2997725756759848093 0.035785067186255292704 -1.0015699461433231754 0.14605711242461205668 -0.93145966010984970751 0.44626019903204006134 -0.35613880510648954214 1.6487126522259412109 0.66631928697646425341 -0.061894814162220146425 -0.14133843536596196744 1.0123381505510242739 0.37470115078231136518 -1.9176607500915172633 0.92845597117818090549 -0.67593918359061488932 -0.23671781961261584293 0.0096269738721094788581 0.68960626334828512007 0.59848129368409286322 -0.52275913547548191751 0.0043172836475565690151 -0.087445486528926641423 0.28120620246845362544 -0.64807595931044970072 -0.0081162254615143591963 0.4350374548879568648 -0.98674933891965066479 0.71066337851535665848 -0.13573334028345279689 -1.3229114603607268208 0.83599297638459457715;1.4569889949151340058 1.4752396832985734676 -1.6577665637212810612 -0.68660310118800982337 0.71921980092386506023 1.4432397340794489438 0.32367362867309806829 -1.2568969219719736685 -0.96772399376736406573 -0.44484126464949064195 -0.38044415235176487489 -0.28560363688385942416 0.027577145397726543496 -0.90577334556201971605 -1.1214073169204334945 -3.1580599644195075371 -0.85082893485052235594 1.2553427441972868639 -0.58076215544051668083 -0.074412689802966502928 -1.3241665504866522163 1.8981758056719222338 0.86469109230332563687 0.077105474522177641639 0.97998451969435740327 -1.0881166059204714358 0.35983518996343083485 -0.57337917123798343155 0.058812035109542082356 0.77937907093982339291 0.91038255084526820138 1.1584794473403619008 -0.10947423935822933605 -1.5710570460046351382 0.54942576153398270389 -1.9055274281839720274 0.096481701919822415725 -1.0759616045281292784 -0.23285327400995214919 -1.8112447326652567625 2.0617598912069867723 -0.62625719114399303056 -0.041825559895654673692 0.36868971560562463496 0.52234796093690061269 0.26676788656180250303 -2.0240556876846902412 -1.0495561158090671583 -0.2876991221816944666 0.92145505774079139449 -0.26172146457264211517 -0.98346513862315354526 -0.048387021534150920221 0.39039624790821797484 0.16964661536465164282 -0.5975229782299406045 -0.1518292511649693699 -0.17826827226330954623 0.30100353756323161569 0.32485833716390166703 -1.1889291390500249523 0.51916257611656058124 1.4893788513243140237 1.4805143402317797463 1.4561716373160196181 1.1670950204917709403 -0.88106470402907366424 0.11575475386493361274 -0.5639640246221435671 0.15694978048550978222 0.037734387736433394611 -2.2232149699091561246 0.32054748801811006054 2.1486731344632188367 1.1638205277019526562 0.35679892034037852255 0.89361211106523086301 1.5565335534535691409 0.64052956103415514821 0.042329965211687026194 0.12311444250914316267 0.50731115394637515958 2.184023566706729369 -0.9449012726870621437 -2.0684742208930853025 2.325414389810609439 -0.05758308299369835348 1.1505993058274606167 1.181983409693947884 -0.46632646479707928755 0.63105013794757813805 0.5303704594554219387 -1.306376611842437141 -1.4687463338231603327 0.10325096504380548712 -0.012386234752551628091 -0.84429876140650494953 -0.034018338978629381053 1.040511834583637496 0.50478828745233572661 -0.33203762653957225037 -1.2846272662764937067 -0.94072023743110877447 -0.8539009996082320697 -3.1179364622397813811 2.190897474975512349 0.3026771860124900515 -2.2078080942195601466 -0.1745712631317064556 -1.3587688477928485664 -0.47550971992023893797 -0.42095005999435514132 1.688646359579361933 1.1756350442137089019 1.4805261393836766093 -1.0259545126565636775 0.55778655037012958573 3.6617965063162483119 -2.2045488241402630969 -1.2612969412193368868 -0.7729070867013891899 -0.80049351165473070502 -0.13963226521752858389 -1.490010660394965214 -1.3622820910373516501 -0.24193173925784949851 -0.92389356697326663337 -0.87985151721634990984 -1.0139185471547222939 -1.0191722014252009298 0.24579285193408526022 -0.25527148125662824096 1.5547197714476095332 0.70450311588941194607 2.8094095037917394819 -1.2348183063384483571 -0.033459694917755022914 2.0577968439932461386 0.78776634344663976073 0.47726287525859056871 0.37700185547326481306 -0.39616183601410337456 1.1583784458381400917 1.1095460007791873025 1.4058345102332128196 0.036346021955241086809 -1.4937684821558274706 -0.79806236926239815244 -0.90602431157254037508 3.5560738640922791021 -0.67434385307020683342 3.2194254601203580179 0.39244887176036780119 0.43956212246832832014 -0.24239600648979103825 0.49296042577084064895 -1.5586626249526100985 0.21448742991710478822 -0.017884568404088307947 0.68857446637689745383 0.6669820661200717149 0.84595341269649770854 -0.75806588744448655248 -0.23214407797072900141 1.2662393939834784007 -2.1969287500802821 -0.96500573499612629647 -2.5416526230669149733 -0.082068295217413489429 0.047682553781111858271 1.2715857459458514978 -0.63661765676845261108 0.8645390369716809964 0.10004116904527732279 -0.66730663294952441422 -1.3940268815031160443 -0.49632238270490758314 -0.83859968132906326233 0.61343018633541535056 -0.86569035259183113595 -0.35311514718204550789 -1.4181425321238361192 -0.53283731541186296621 -0.062931002190502433047 1.9227469299287955895 -0.86405873629160256932 0.37734775285389665633 -0.95636196122755412485 0.19983035642324092906 -0.48254461089774886018 -0.3494124345109738683 0.35390065660659808522 -1.2359009775916622864 -1.8725585719345581026 -1.7633299617946254223 0.23801409973643261608 -0.13142438550583551704 1.1595227994676426952 0.46458913457690415028 0.33831708616846672966 0.14879939046123641377 1.6948229410336783651 1.8479852633642679383 -0.25957748225160004463 -1.3916158450510713873 -0.22563911707016559571 1.4234633646069507762 -1.3689661893701541295 -0.86858064852820393575 0.8723953232880361508 0.083336706218758660469 -0.087675667834605508499 2.526023792319900263 -0.23918417539816128059 1.762463825739864598 -1.2733736481405619756 -1.3267899626764452226 0.14748913965037466212 -0.28312129174117495189 0.43055693000409378524 -0.30703555165437690366 3.5115049088691527857 -0.062445838907967968212 -0.52674641661536569792 0.81217770985248016746;0.74429039324110524145 0.9496416148428625803 0.42647845378619386736 -0.52998646254843473358 0.81202595949596712011 -0.33828827744613487738 0.64468208276541916213 -1.7247572812069178472 1.1120698829389861206 -0.60607647243995066422 -0.13614553746792623645 0.19541214073293383668 -0.029400256925122603135 -1.4419784452002646358 2.2070128585431110224 -1.5223529069007222247 -0.66243859806899052511 -0.14572714887398197092 -0.25787250601352806889 -1.0695356227483909795 -0.22158552050145507994 1.2235374379157339941 0.058630637651814948574 0.10222209348764266235 -0.30906268184724983161 0.804044605157012926 0.15152538187166400552 1.1301849292422758708 2.2398195230299537961 -1.7318701838937373694 1.035157207857636763 -0.019330495368668598744 0.63955656579321551458 -0.92296000362795271865 1.3825337694466732774 -0.74346620848183686547 -0.94668101436245710723 -0.83892059274790409251 0.26706572253791960314 -0.55198948951103443683 -0.27261340986404836162 -0.38615383419332149906 -0.45958772246890422508 1.1109215021947389523 0.40098442721898752694 0.73916567854877446297 -2.0226207033055256801 0.56800417279349457722 -0.64338588740850066738 -0.95334414404623690764 1.1865639456361263271 1.5898014190870308759 0.52695537707584061415 -0.62530995097946218131 1.1690791356044025751 -1.1028854711930879962 0.23514513640562881291 -1.7051071053371611441 -1.0496461464645190365 -0.17602096482288276391 -1.0802646712727561606 1.8392925608783898817 0.17366734108461273633 1.0933909895889746267 1.3933575782587168668 -0.7244275190297913003 -0.92862392338655475044 0.22981339600929601152 0.14258366987924214753 0.067554158469511405016 0.43203478858247773564 -0.30288376930058896752 -0.37796445503611092454 0.99859940579768691205 -0.7002385435540487979 1.5382363802415461862 -1.2011264426497463287 -0.34505140723250715684 -0.97634864690625577932 -0.71886812258394794384 -0.21885272002534314484 0.46110591622341967621 -0.54470176565283567882 0.59924959019970713836 -0.87890764641403040791 -0.13084800483768443957 -0.18491823972447760105 0.90913536309044817862 0.67721842815769373036 -0.95552535934071403112 -1.1876451813688939652 -0.51632309092279260465 0.21585680056316969289 1.4213260859421463778 -0.14846716088733280525 -0.83508296381788726936 0.926009301386773509 0.35117433195091352083 0.048096560805794053017 0.77684771136844943396 -0.20957030451571054264 0.27653856549860633685 0.32171900310463014128 1.8462102020177746375 -0.907537875746269318 1.0738932090360648886 -0.00094700229960378856653 -1.8413612862504158407 0.5929144167637039331 0.47042519849904496088 0.41094021334280600444 -0.762337648845232696 -0.0023523899219604071931 -0.65953269743145703785 -1.0927004714761330284 0.58532929214603612866 -0.46576227757772770133 1.288984817034045216 -0.41075746893084869038 0.66599651442638463372 -0.7252347651904228476 1.2632861778682458187 0.17443886993468704638 -0.6665300187053215808 -0.46317612565284038695 -0.30821436214697073286 0.34664436607025417292 0.022990698861439951006 0.36925684433589034406 0.98739435703853128956 -0.6928125360547238154 0.84699963300233582775 -0.41423334967952318841 0.052572471847797286326 -1.1256522882890409587 0.33524214317407252661 0.076667906848955247323 1.5294376037889869657 -0.66625635922732939775 0.21787649276793064068 0.86940816894853378827 -0.66586377042134214932 0.69337053501117051901 -0.64912559341378117672 -0.86689258706668659293 1.0977138403874615591 -1.1975548977112144833 -0.082572611534395823352 -1.8168793537470286914 0.17633091015815649527 -0.37651062236568694219 1.0893611746959916964 -1.4800453385813152618 -0.69365058644719645997 0.36205197414488732299 -0.92606690022680826502 0.31156068980265166912 0.13785863920519886294 0.39245218714829716022 0.10496703851528094154 -0.33461517752234476442 0.2748729219915726496 -1.5085144180499283628 -1.0547282272599884934 0.39942363307107742187 -0.0054322720805968227609 -0.67821079772834891308 -0.022169609576310422838 0.45087054695773443047 1.164429136339477644 -0.289854241945330382 0.12044373946740005721 -0.50484781218592134078 0.17428524008027879155 -0.89614329572268969226 0.97283368783042745154 0.040199263494274953268 1.1441888888184563733 1.25867721922471687 0.54613798984488970412 0.46007612468505398873 -0.1288423231299203886 0.33178198922715490538 0.6523174480118968388 -1.8881293139874935072 -0.42676929094893628625 0.42015079862085946694 -0.33375887500090795079 0.23712906199961100717 -0.35439022758626764764 0.10424360459454018457 0.48729752227430750411 0.39965289716435825618 0.71113272849581388169 1.5117335894886074765 -0.92065455113183081171 0.71909567527423190469 -0.29038272557778527228 -1.3506286290988946952 1.252272577001347198 1.4019915883102853638 -0.081706239151013437816 -0.33998768709293492041 0.024978855344599371069 0.57113140059072953214 -0.95458051070862248721 -1.3584270667098949925 -0.88306687441759079693 -1.7586409107614451308 -0.82211840647756107003 0.45899912453634406084 -0.20839045864399877162 -0.10370536545127589934 0.88965648909265815369 -0.77902094240557029359 -0.20984018723675029738 -0.39312352106663861484 0.32906763238448810682 -0.02720062234931885925 0.097370947277544361853 0.51843010189838234503 0.38845231291850312871 1.1392391218782393914 -1.5070198428427763471 1.1209342905276313829;1.2197632303864769376 -1.2327572302205820343 1.9664065865695410373 1.2280204830611740618 -0.55147775177665636637 0.36280851430330335328 -1.1805881250242111769 0.95624936124774595481 -0.64281341935295333023 -1.8618646110026262352 0.21719096895816802917 0.76068750686974029307 -0.22165119135801325534 -0.89428183580488929127 -0.70701510612228146702 -0.26513983345213337772 1.3049639445834204654 -2.6321579511193213818 0.55062592462112525116 0.028848414127130739271 0.18527764664988516374 1.4183615421193083161 -0.86316127977091172685 0.21216399306380540057 2.594320127448787261 0.74883739680664318517 -1.0282901846495799969 -1.5258405364370812851 0.67927366698946256562 0.53751522202342139067 -1.5414054177864360273 -0.68558028936231030226 -1.6084027956303703633 0.67688670917462090415 -2.0307250480176213259 0.5746118259016121943 -0.89568150000419355372 1.1832018543541129585 -1.4386811438835542809 -0.99469029470338354848 -0.50778760951282653213 0.49267461352575786515 0.85221100912990976894 0.44663310869537736769 -0.21850300904613795261 1.4180674227470424498 0.99578661844746185761 0.78066034515734439303 1.2435463563272706189 -1.2505200373791045543 0.38950400483245040117 0.23512963713947304667 0.33163790251863856096 -0.59391435400178382853 -1.3069622991062450623 -0.70284362105344233562 1.0168568472611145825 0.7271594165976965618 1.43409545734471644 0.888093713534330087 -1.3700164456331602736 0.10669955120415858252 0.51981131215338327589 -1.1915801696951617838 1.816199501004597483 -0.43382640593627186387 0.23302362187618241851 0.28093801248620903221 -1.1653429378098407732 0.79499127020962412349 2.9091110481553856815 -2.172770197231439937 -1.5044575508857520596 0.17357800864650740902 -0.25094849756372716865 -0.38481933766186360302 -1.5184412701954492775 0.084689510020846958671 1.4988202173501867787 -0.4754126310860654625 -0.71073073554286692044 0.4263987019229544817 -0.29655598115839698625 -0.054516480547649903698 1.0691756503334213235 0.73544709848017453258 -2.0753315432837613486 1.3282141578816386573 0.59853325820475611341 0.740597298212922861 1.5466950334696218938 1.2549368434423104901 0.84323624469142188786 -0.38950981047654176237 -0.38524592414086633596 0.12483451042564636113 -0.60657899434126971716 0.78448465105510511997 -0.3073937793857349221 -1.8517293620674526444 -2.1122172986395097993 0.41644812595090169305 0.35393680057162957286 -2.3985743677330231272 -0.88137197397963584766 0.8814293682354196191 -0.13731375344585672327 -0.7671590555101323039 -3.0764523554062064292 0.43609985724614297453 -1.004158499204327315 0.64157244402482860313 -0.93960459753458214216 1.0178119624933192888 0.24420302616854885902 0.46964165351172582064 2.4852366077110783493 1.933161343462297399 -0.052361798638157208696 -0.67695033011625715957 -0.77208144886638430116 -0.74808011429795806535 1.6239175842424680152 1.4496242988338388091 1.1896248604853096875 0.15370093690593322755 -0.27961980192191537853 -0.22926105821828302034 -0.70607118425296833131 0.056082297351845888933 1.4299614243059513008 -0.53936253474801343355 -0.81438104105062047999 1.4647750994748762743 -0.40671798760966654251 -1.6521340800530708304 -0.58688437843422558426 -0.070826193169746753941 0.56128685889853535684 -0.86763141184940639761 0.23004076698139658275 0.34663887967803369561 -0.75120309164459542206 -0.29886061261451574156 1.257063406268005501 -1.8025426940199893444 0.65970885303293869129 1.0530658696350176928 0.61153498263887828834 0.64112633593344081628 0.58517334330560766276 -1.0118593071491086555 -0.44297107519317890922 1.4595003529048033997 0.19685261101672379969 -0.11354368981349560741 -1.55101206320259144 0.80419985612852784573 -0.14327213027589325023 -0.86409631374274187277 1.0944679323915469382 0.57839945671317949394 -1.1499572443543994993 0.31992844419349431018 -1.1324187680918953447 0.65639720531614043075 0.21888099816862849334 -3.1895552665255886282 -0.30120512919380959538 -1.24081593518145894 0.66290606598017276507 1.2162730125809084747 0.31314297243436362006 0.42911797181792316058 1.5458772346738118841 -0.37520580873764702856 -1.1356268303437169198 -0.31875193379637123403 -0.47022340236415871573 -1.7119468739875065566 -0.38355405925358887487 2.007390157195261704 1.9115021994418568418 0.65707474175834290619 -0.30563962751344109225 -0.82426741127300029444 -2.8402171779152700637 0.29527509837281584737 1.2895903592899762291 0.1706549420829481245 0.13951533331797910664 -0.045895971540402591415 -1.8363886492068934864 0.72600455611682601642 -1.3654014741314717263 1.7738723474265420954 -0.54225903508246009466 0.69241191463417617324 1.5569468116273164071 -0.28155782193471035058 2.1613394043056053384 1.2882342917317974873 0.99272796114317696237 -0.28686369283524359997 -0.90020220172522558144 1.3946204611744839053 1.764724111648608762 1.9199486970519825668 2.1368589873088259523 0.93683302042716531943 -0.89037035813784437543 -0.12838053320585329775 -2.1059665807451750652 -1.6454920202371436933 -0.37623450993427953737 -0.15476021977777054683 -0.43978757329274187349 -1.3023073192396299458 1.0569362690666710414 -0.27209059826366432944 -2.1376004830343986463 -2.1943934887129707967 1.2635666879044706867 -0.23874085940380662674 0.5028321827151097656;0.098697587330701316843 0.87700755499013260952 -0.098512446121915231423 -1.020504857743752769 1.0331361753824204186 -1.3845609478318898766 0.35477206352198398243 -0.44823051368952882001 -1.6877067857669576512 -0.097235921283351844924 -1.3020967633116844464 -0.789400529593164757 0.43115252578816676277 0.78060630103976702543 -0.59277690733462962136 -0.73099429390114201155 0.77030450742431411104 1.0638297433440169204 -1.8710784623825769124 -0.15104476679035816478 -0.22110599132869857009 1.5227519623474041754 0.73474156742731056013 0.86288199397514375732 -0.80722095656007197828 1.2163572347653488492 0.86559408992810560335 -0.31823437700203510703 0.35606494872729427259 -0.1442356313570044013 0.30194510329469403942 -0.65905313043452140587 -0.3044775954744152191 -0.58180692440430603618 -0.04163325174610732482 -1.5513266513829606641 -0.54529756818770591664 0.68325583747452589556 -1.0592615053252409929 0.80047610618983611186 1.2942637512186088156 0.71165385713278517255 -2.1547449079748624001 -1.8158604136049152356 -2.1148472782158700412 -0.15490767907940325432 -1.1966622840618310608 -0.75093774200047547218 0.0430126765491460894 1.0412253022760837862 -0.15529177742423766473 -1.0278383193654190286 0.6629840693980930677 0.405086573967697261 -1.72540160675599763 -0.072707466541740262134 2.0938347783732251806 1.6709094826471591055 0.66593926531701785887 2.1212631382938975655 0.54156140195976987251 1.0001600825881040713 2.6944965298183487512 0.4956990601296828447 1.2988650197701625544 0.0014713741018717030329 -0.56836620220693268024 -0.72379539012462301706 -0.10814934301093420688 -0.77481151881089260769 -0.888296739408271252 0.70922207759407018823 -0.6305016654186864633 0.30124021950603085962 1.2201967945382179437 1.1414820032581098896 -1.1298852396093019834 1.3591968880205826942 0.064471759753787605263 -0.051158137024248873104 0.33870106213949358054 -1.6859764224988289527 1.4404080183251903868 -0.018716153298910243041 1.5690000159573245231 -0.73014228581511497751 -0.91546803628673212305 -1.8464982283633752935 0.19832813131737608847 -0.72573803201498154891 0.12052299371533617411 -0.33045334129841141824 0.78794568718223811921 0.011782447743304835797 -1.6874787120223988524 1.1461902012317186639 -1.0184117948356246064 -0.50047831318359015107 1.6773681107601638995 0.42733727234563667619 -0.16228233776925626852 0.53890379389428411105 -1.2379206984277486558 0.32953294534751742528 -0.33844501462728115992 0.6882796900166427978 0.70963458281038649389 -0.44640122761598549639 0.3831495244015423185 0.71719416269425884103 -2.1512916290764341198 0.84272001331380752553 -0.71482808029787014981 -0.18215393814532043759 0.075656294830591330758 0.82334681180811919443 1.7532204424831827616 2.1930442101026614843 1.372867694644904768 -2.2660220061062426034 -1.6818903302192513838 0.31959349347674920194 -1.482282063442954767 -0.21547643000237942656 0.064654970255270297064 3.1168015828966093572 -0.4411962601086595881 -0.0035331386947565213141 -0.8552358098919080609 0.0020343217476546104905 -1.9081259747731960097 -0.31816046753726168195 2.323480311263423026 0.51992993401713871737 -0.98658106399407419218 -1.434407330935862479 2.2774918502449787994 -0.80651882575024247402 -0.57609978177928755638 -1.1110779748745776008 1.3250465664508501717 -0.21507408922283410835 0.16079289457714285305 1.3600335479605925038 -0.37021280442687387602 -0.68529997789915886308 -0.84197898991590669482 0.31705832518479915016 0.33100958434653571238 1.9592143750174670913 1.4038111721995611969 1.9423680386766117856 0.80835799680191522398 3.0130358730883601837 -0.73907807885287113425 -0.56432357187080128824 -0.82139802725435606678 -0.49590007344293834946 -0.072047123921523348322 1.7514089551652187726 0.43511989879538814918 -0.95451436826080937603 -1.3613467860181243108 -0.056965184775909005754 0.32753150183585194588 -0.54874593643417068911 -1.5336074333549549742 -1.6647427125296818673 -1.1831465993946994608 -1.9066903109907618052 1.4985138221630374122 -0.51885273588272862177 0.75825398393571596944 0.80459338412108893923 -2.0837593425294183014 0.015889294441930046364 -0.72360292851692420424 -1.1404006555311794191 -1.2357801027968249308 -2.4255753557777999241 -0.42963243596504840927 -2.366396707648703579 -1.1453553318043181442 -0.25713749996815832288 -0.86713846181201659213 3.7391724503084189379 -1.3891750953764070431 1.0231789489334581766 -0.54204412128437595708 0.79751711318024298691 0.36331698261985911902 -1.0512607964310762831 -0.92722711253041256718 0.53701367464678995134 0.34733955269125948995 -0.0052233482450866342006 0.31825812455299484771 0.83753481626593995202 2.4624735841409752801 0.52566665781268673285 -0.78407690775250848958 -1.1119548813278623545 1.0044965728200252464 -0.60292651188647883309 0.61785024511833386285 1.1442160193643566846 0.9050080512770225516 -0.53026785410188204128 0.85616099744098650426 1.449969627340939704 0.19062333067459380498 0.80567577681779445342 1.3435276531688717938 -1.828654325822510307 0.37476925522055332118 0.014354876102468772103 -0.29266447150864283167 0.32933202211054468656 -1.2085258901210540472 -0.2209140940992793678 0.24215040873037810276 -0.023035124002425799716 -0.32892900351677056836 -0.25727743668005093047 0.55058473345539626909;-1.0677260625801117122 -0.16677116902763075568 0.3674319900581572429 -0.43095602981090530559 0.2413590666193268508 0.06140556883831368995 -0.31976248033527554515 1.1671168472309549902 -0.39291937883589767022 0.85339587723568810507 -0.25236064117721002109 0.41860253471931069269 1.6449895198058008816 0.29594383210589003674 0.87246220821979747484 0.92848647520782467968 -0.49354431222194355966 -0.12811088389066588311 0.4693012297472010097 0.012608306426538234968 -0.063815275730858739278 -0.36445868878026466131 0.25673949508825877341 0.22588477697439729441 -0.33404986317080587188 -0.61933267448444317971 0.10866472826346421088 -0.87977586570477206429 -0.70033866377381359669 -2.0669494713323057766 -0.14323720867231709564 0.48492291075826271518 -0.35207821450017906528 -0.37475073597386221458 -0.7327426971569857006 0.16840689681706111358 0.54905124876231337083 -1.386090420763504083 -0.23415506003725905515 0.99612648303696516017 -0.88572058028448985567 -0.37834605518145641989 0.32399189842914122295 -1.1681152429059360465 0.55947226056858423426 0.0956249364647944744 0.69004217149133850739 0.19915005524968676376 0.8428998799573390599 0.5348255810053192949 0.076273007167377532278 -0.77031607890811026884 1.3496310998924854196 -0.34931470818656779054 -0.84980460947420244366 0.50184027664742658636 0.45716606613224686217 -0.65363344433703285397 1.2921193083673101487 -0.99668333286151566952 0.26228396363317890705 -0.65957298383564366695 -0.39952619496967434198 0.062162083558271380435 -0.52883315738951830465 0.18490989499630844373 0.10098617054172275009 -0.0074450721484968784836 -0.56418150950886136741 0.54962486900711038373 -0.66102030298282532517 0.30988522534589413304 -0.18026563326672151444 -1.2582213872207215211 0.45553273853780251734 -0.33676744543592235237 -0.044544814900604967622 0.14140096025586867956 -1.2684283883698981299 1.1767146956041629746 -0.78372962912240906608 0.3289896484731268389 0.31010035924227907778 0.26832289031281963965 -0.14599163683969781924 -0.79870370251331190836 0.9140442026885842175 0.34856944356524965922 -0.58682594657539088878 0.26259675580027075359 0.11638609635222191274 -0.67894915495718044518 0.59865010945502428186 0.74477411878187038674 -0.44093850275531210059 0.11111068725244727107 0.5478186747315121341 -0.43432929503493056256 0.2122072444005372871 0.44014428311281161843 0.68445079055344548724 0.10747201305431908214 0.76644044259052623858 -0.72786049038863498417 1.6937091527496916932 0.28472255705285970384 0.65370645008094818706 0.50948124975237307765 0.46950408369924295782 -0.82580924965679636252 0.48010154263479676295 0.1924742605922369898 0.37095394882688775828 0.17824111939940548432 -0.61305177783784170487 -0.96477043241161597464 0.89788050904992389167 -1.8272731099437151681 2.5167036702628839961 0.80488076217804138679 -0.5590150997841192293 -0.74292962265012096879 -0.95439321804195009769 -0.27367720342714957349 1.0603248813317398547 -0.085374249015639600002 -0.86456213697555606146 -0.21235824015149332156 -0.50516575904504079642 0.7507523257668542449 0.63857774960268243181 0.20480920068010360913 -0.7886300453281613887 -1.3518595120904584039 1.5108327172684032913 0.45480928317349811341 0.55211866721437452554 -0.081843058477594599065 0.05669902293888846867 -1.2440755440910760132 0.39832354501013245152 -0.13510797268525992498 0.95986721404698571725 -0.30805874827730289622 -0.24824652620482956511 0.36088147959182770297 -1.3883504941934303734 -0.259943680299297597 0.13440084016091724539 -0.10037145995083740502 0.35648413680075508037 -0.81532330366238636721 0.49498349343289460567 0.36498858220613167314 0.62207807986288865543 0.67030951181002640382 -0.0059996892645621524576 -1.4459921555436916485 -0.44692137762348249641 0.64439879923757559244 -0.8064492490441130812 1.1629636036334476401 -0.84995050437840014013 0.58638942011758454775 -2.8897432720882703094 -0.96689499743440865398 1.060781680148106032 0.27191511665057743752 -0.86791588149332810076 -0.33196803461003376867 -1.489876239443711281 0.58285264397955038884 1.390490046782316913 -0.46612432958263172456 -0.29929335150190677917 0.030765619409835728848 -0.12339108882292579294 2.8040515730978996523 -0.21950939940346500534 -0.23499419200908955307 -0.45531666585423502536 -1.0429741658933562309 -0.43958750131887291968 0.45318903495121176661 -0.059475513065374269184 2.2990609734388995911 -0.59588221803774055196 -0.93448404708837262689 0.383842883365670684 -0.4521933207215677597 -0.41516425190018968472 -0.13311672791068734911 -1.7911437461510981706 0.47242136527227007736 0.68220137412872638993 0.33562662474829452197 0.45665107231208923455 0.15375144042063287886 -0.50451342131014764725 0.021010001704785619125 -1.2235317282911339909 -0.51048315921480025281 0.20247727546585869707 -0.17510603124969953415 0.70704543149846188488 0.50304631039233438372 -0.59785776690448044768 0.81641417512071057239 -1.6670324911768847898 2.4461044006572727483 0.063161376756399878474 0.36416663231747009588 0.28650316122406138675 0.11517395828914914202 -0.55084905737508882417 1.1729538109298349724 -0.92904011483874815447 1.3192086867842229836 -0.076731246833890542902 -0.35963810694583986383 0.38279408994984226444 -0.46149595070236870686 1.2082520854347742478 -1.1460685919797817256 -0.50863427808122207985;1.3928488096205358104 -0.90013733027778575213 -0.88444282802426432699 1.2947496804201223952 0.30875700828719820912 0.7742709696448175638 0.45156811646706307428 0.75984929879615126236 -0.14547644880626592334 1.9443885871123651743 -0.63640409406154785366 0.9079634747658935634 0.40524500768446403143 -0.57896954344569262485 -0.98848955060285237373 -0.41332267686424917219 0.51706713591479624981 1.772456525770293112 -0.12392526483702409612 -1.5525741757267814691 -0.49809402410055259036 -0.71106103138799237051 -0.66656232203812937342 0.68680214426929286908 -0.67057116201495037267 0.068706226165677786177 0.10603362039148500617 -0.62620541378175986758 -2.2386775543580226255 1.4254577261509255859 -0.35170802741876278086 -0.083570683386777588897 -1.35889867607952608 0.12077090569401094378 1.0049590560716532561 0.88780107095743354684 0.45825837083283704754 0.11031399424752680316 -0.406215592419059357 -0.7379650725007393941 -0.64320924660139211504 -1.0507894338774466103 0.22015004496795415045 -0.45218570980205174958 0.4519051424717179799 -0.16003278275156229693 0.64842368623399382344 0.73958787881082932447 0.93847395808112588078 0.057518011304601546207 -1.0762766261321676797 0.10771969487105381713 -1.0164749936706989342 0.13276069078255819944 -0.11877053413852778352 0.02134666248731437177 -0.75056249929165497203 1.3120984282634438056 -1.1213578884423105464 -0.90662528691108656975 -1.3590225636358015393 -0.70846730896922704979 -1.6095614899173946721 -1.1897941264365297087 -0.88874366910589974733 0.67453363577564573461 0.076352427620731244673 0.20229957354770566891 0.33433736675265168792 0.18508045822309168726 0.39895263829103788655 -0.51834722987426651297 2.2169635297710788002 0.27815048830969257843 1.1527117561656612388 1.8141864498113715598 1.5437790245131992606 0.051861959008537961147 -0.38619801917999035945 0.85235720056426922397 0.31256698391337245369 0.070226386289239106642 0.40689344349048683913 -1.0866629360195934062 -1.7774907704939144626 -1.4893580130656558502 0.37095075938696064899 0.7788478212793753519 1.3633117280313178377 -0.90930710212992926778 -0.52611781295599491237 -0.70826127982472530942 0.94258354116386766641 0.28201641423020340493 0.028084484522503019854 0.45751257374992099214 0.011428397006769328015 0.63347466262383789193 -0.58412522694584290139 1.7259859047879639871 1.9491326673517241908 -0.91754023135268814038 -1.27060018278868192 -1.9264764732185648555 1.4013945619801981834 -0.47866146999645192706 0.11266637749665331381 -0.6538277963629101075 -0.84617854604013076347 -0.79918461794637518647 0.480768762654888826 -0.10261139539610791838 -0.1928003954399179487 -0.088070762527693885469 0.41192922245793472946 -0.027345227930079596401 1.2793443038519212163 0.64761291250285613064 -0.15939484985739765799 0.009262430339276372937 -0.42557755699751931289 -0.23376484872818392713 1.3142362557857723004 0.64201244823319580934 1.0035006934848871296 -0.57654174450325701429 0.22345892189421145968 0.22955426239918313991 0.43622534944436092141 -1.3675686801669426629 0.10871351422471525749 -0.75246389152423232005 -0.51022754250991408931 -1.9488749610170630344 0.39967052209675213437 1.1025576503989769073 -1.1700142153495540764 0.28704881501283419087 0.42767767550295943124 -0.11797451196006586427 -1.0587775863233845897 -0.74483933403591551237 0.1845360745245508971 -0.25905145114620986568 1.2143367106890419205 -1.5452490658001674095 0.60687261315238671955 0.50315033780002926811 0.34665999701392968824 -1.1149267498495372131 0.4752166443798665485 -1.1082250232835102466 0.35060038182928066064 -0.70627914829682847397 -0.016434801682868260819 -0.26325720832594445842 0.98505919128889929404 -0.6430693357808422439 -0.71858327859423731798 0.0057325433715300633253 0.34423132043854504092 -1.3764824834314925983 0.34649778831034228066 1.1750726302032434845 0.48201731883948989443 0.38045835389346061017 1.3071103345582630872 1.2223150196967886849 -0.35840724894817188595 0.30137131252693621919 -0.27772642134397595992 2.051440286830936266 -0.64323256300647868589 1.057951474611571907 -0.69344307964052798177 -0.028290935381169834972 -1.3670153768207355949 0.86033124193971877158 0.38878738262914758206 -1.4395445504019881433 -0.86344976911301773992 1.1278167844670201614 -1.3489247600255576121 0.94980058907315212391 2.1165448634943784256 -1.548286827020132872 0.57107738261268736757 -1.1288118947144638593 -0.21356997127016491556 0.83575155312613147451 -0.36841386356290228843 0.51354746097305825625 -0.43477695356732048992 -0.70700474071763752537 0.60014462948486912985 0.29247830478735148407 -0.23993567267374293905 -1.9335260702274497113 -0.2915013646668799252 -2.7293677056992216023 -0.49542750852683681284 1.9436218823238990971 0.26354726725228250217 -0.3729840073719379312 0.25256560717339238131 0.8648260781478549486 1.1547161202118876311 2.0583311416662968263 -0.15370270481055059442 0.90404041972302306984 -0.18651394971971158032 0.025368753370743124531 1.6593294316231994578 0.93921271960562335845 -0.032914992463365377873 0.57396591818480735547 -0.33153281494823649833 -1.3638504656476446719 0.28185075303562678872 -0.4529801734124567214 -0.29171144980902780075 -1.0593592621524190456 -0.55641908293751474179 0.40765577259307317348 -0.5411211802393609549];
  
  % Layer 2
  b2 = [-0.013974728811466122225;0.33233516553200947996];
  LW2_1 = [0.022843102804619166979 0.056710561556860897281 0.2044920610248635584 0.045305944450701303439 -0.027792431315181269358 -0.058206918800294278615 -0.03257402564026310593 0.032926616478608179694 -0.45832448777425938147 -0.033646373772286818082;0.036021709027446724427 0.010319810286521818865 0.38166810000773726541 0.077376988735930088414 -0.0021404785233976944547 -0.0884037492334485836 -0.004455300656196904685 -0.063682637055496912892 0.10266036295529526456 -0.10718577196098846849];
  
  % Output 1
  y1_step1_ymin = -1;
  y1_step1_gain = [0.027806381524749;0.0253529970584109];
  y1_step1_xoffset = [22.7633446452;1.616512];
  
  % ===== SIMULATION ========
  
  % Format Input Arguments
  isCellX = iscell(X);
  if ~isCellX, X = {X}; end;
  
  % Dimensions
  TS = size(X,2); % timesteps
  if ~isempty(X)
    Q = size(X{1},2); % samples/series
  else
    Q = 0;
  end
  
  % Allocate Outputs
  Y = cell(1,TS);
  
  % Time loop
  for ts=1:TS
  
    % Input 1
    Xp1 = mapminmax_apply(X{1,ts},x1_step1_gain,x1_step1_xoffset,x1_step1_ymin);
    
    % Layer 1
    a1 = tansig_apply(repmat(b1,1,Q) + IW1_1*Xp1);
    
    % Layer 2
    a2 = repmat(b2,1,Q) + LW2_1*a1;
    
    % Output 1
    Y{1,ts} = mapminmax_reverse(a2,y1_step1_gain,y1_step1_xoffset,y1_step1_ymin);
  end
  
  % Final Delay States
  Xf = cell(1,0);
  Af = cell(2,0);
  
  % Format Output Arguments
  if ~isCellX, Y = cell2mat(Y); end
end

% ===== MODULE FUNCTIONS ========

% Map Minimum and Maximum Input Processing Function
function y = mapminmax_apply(x,settings_gain,settings_xoffset,settings_ymin)
  y = bsxfun(@minus,x,settings_xoffset);
  y = bsxfun(@times,y,settings_gain);
  y = bsxfun(@plus,y,settings_ymin);
end

% Sigmoid Symmetric Transfer Function
function a = tansig_apply(n)
  a = 2 ./ (1 + exp(-2*n)) - 1;
end

% Map Minimum and Maximum Output Reverse-Processing Function
function x = mapminmax_reverse(y,settings_gain,settings_xoffset,settings_ymin)
  x = bsxfun(@minus,y,settings_ymin);
  x = bsxfun(@rdivide,x,settings_gain);
  x = bsxfun(@plus,x,settings_xoffset);
end
